digraph Tree {
node [shape=box, style="filled, rounded", color="black", fontname=helvetica] ;
edge [fontname=helvetica] ;
0 [label="all_salary <= 641.0\ngini = 0.49\nsamples = 73\nvalue = [46, 59]\nclass = probably male", fillcolor="#d3e9f9"] ;
1 [label="representation_gap <= 21.0\ngini = 0.44\nsamples = 24\nvalue = [22, 11]\nclass = probably female", fillcolor="#f2c09c"] ;
0 -> 1 [labeldistance=2.5, labelangle=45, headlabel="True"] ;
2 [label="gini = 0.0\nsamples = 17\nvalue = [22, 0]\nclass = probably female", fillcolor="#e58139"] ;
1 -> 2 ;
3 [label="gini = 0.0\nsamples = 7\nvalue = [0, 11]\nclass = probably male", fillcolor="#399de5"] ;
1 -> 3 ;
4 [label="B <= 0.5\ngini = 0.44\nsamples = 49\nvalue = [24, 48]\nclass = probably male", fillcolor="#9ccef2"] ;
0 -> 4 [labeldistance=2.5, labelangle=-45, headlabel="False"] ;
5 [label="representation_gap <= -9.5\ngini = 0.38\nsamples = 37\nvalue = [15, 44]\nclass = probably male", fillcolor="#7cbeee"] ;
4 -> 5 ;
6 [label="gini = 0.0\nsamples = 10\nvalue = [15, 0]\nclass = probably female", fillcolor="#e58139"] ;
5 -> 6 ;
7 [label="gini = 0.0\nsamples = 27\nvalue = [0, 44]\nclass = probably male", fillcolor="#399de5"] ;
5 -> 7 ;
8 [label="female_salary <= 613.0\ngini = 0.43\nsamples = 12\nvalue = [9, 4]\nclass = probably female", fillcolor="#f1b991"] ;
4 -> 8 ;
9 [label="gini = 0.0\nsamples = 1\nvalue = [0, 1]\nclass = probably male", fillcolor="#399de5"] ;
8 -> 9 ;
10 [label="representation_gap <= -15.5\ngini = 0.38\nsamples = 11\nvalue = [9, 3]\nclass = probably female", fillcolor="#eeab7b"] ;
8 -> 10 ;
11 [label="gini = 0.0\nsamples = 8\nvalue = [9, 0]\nclass = probably female", fillcolor="#e58139"] ;
10 -> 11 ;
12 [label="gini = 0.0\nsamples = 3\nvalue = [0, 3]\nclass = probably male", fillcolor="#399de5"] ;
10 -> 12 ;
}