digraph Tree {
node [shape=box, style="filled, rounded", color="black", fontname=helvetica] ;
edge [fontname=helvetica] ;
0 [label="female_workers <= 521.5\ngini = 0.49\nsamples = 67\nvalue = [47, 58]\nclass = probable", fillcolor="#d9ecfa"] ;
1 [label="female_to_male_workers_ratio <= 1.03\ngini = 0.45\nsamples = 53\nvalue = [29, 54]\nclass = probable", fillcolor="#a3d2f3"] ;
0 -> 1 [labeldistance=2.5, labelangle=45, headlabel="True"] ;
2 [label="gini = 0.0\nsamples = 34\nvalue = [0, 54]\nclass = probable", fillcolor="#399de5"] ;
1 -> 2 ;
3 [label="gini = 0.0\nsamples = 19\nvalue = [29, 0]\nclass = improbable", fillcolor="#e58139"] ;
1 -> 3 ;
4 [label="male_workers <= 953.5\ngini = 0.3\nsamples = 14\nvalue = [18, 4]\nclass = improbable", fillcolor="#eb9d65"] ;
0 -> 4 [labeldistance=2.5, labelangle=-45, headlabel="False"] ;
5 [label="gini = 0.0\nsamples = 10\nvalue = [17, 0]\nclass = improbable", fillcolor="#e58139"] ;
4 -> 5 ;
6 [label="female_workers <= 7118.0\ngini = 0.32\nsamples = 4\nvalue = [1, 4]\nclass = probable", fillcolor="#6ab6ec"] ;
4 -> 6 ;
7 [label="gini = 0.0\nsamples = 3\nvalue = [0, 4]\nclass = probable", fillcolor="#399de5"] ;
6 -> 7 ;
8 [label="gini = 0.0\nsamples = 1\nvalue = [1, 0]\nclass = improbable", fillcolor="#e58139"] ;
6 -> 8 ;
}